{
  "description": "BVAR posterior estimates for US macro data",
  "prior": "minnesota",
  "hyperparameters": {
    "lambda_1": 0.1,
    "lambda_2": 0.5,
    "lambda_3": 1.0,
    "delta": 1.0
  },
  "variable_names": [
    "gdp",
    "inflation",
    "fed_funds",
    "unemployment"
  ],
  "n_obs": 196,
  "n_lags": 4,
  "n_draws": 5000,
  "log_marginal_likelihood": -557.744937520785,
  "coefs_posterior_mean": {
    "lag_1": [
      [
        0.7247967410905155,
        -0.0168936308483702,
        -0.008726654736036558,
        0.06555766815499463
      ],
      [
        0.006485328419076433,
        0.8206749413031501,
        -0.0042620710254947835,
        0.01577658758995054
      ],
      [
        0.015054350838389277,
        0.014261142899423141,
        0.9267096329337057,
        0.011180991197893337
      ],
      [
        -0.0042175594302408395,
        -0.003574253378180005,
        0.00880311976264069,
        0.9681519394362927
      ]
    ],
    "lag_2": [
      [
        -0.0024590177691620413,
        -0.0015126684648158343,
        -0.00027610998455842705,
        0.008873862645584872
      ],
      [
        0.0022590937534605763,
        -0.006554605036716241,
        -0.001883870519639061,
        0.0026784277263744334
      ],
      [
        0.001998905567923736,
        0.0031693908168875383,
        -0.005509976412515267,
        0.004720622231517057
      ],
      [
        -0.00014661550566833973,
        0.00027165425804458654,
        0.0016920351473107573,
        -0.00718068396187067
      ]
    ],
    "lag_3": [
      [
        -0.001081424854556869,
        -0.0017745115779319938,
        -0.006316065899661153,
        0.0013989779313246767
      ],
      [
        -0.0005224467591502365,
        -0.002334273835039596,
        0.00063410725921197,
        0.0024351030883194387
      ],
      [
        0.00021715867830831548,
        0.0005290528810669853,
        -0.006446487263465098,
        0.0027059879151939627
      ],
      [
        0.00012049214073707131,
        0.00028783889700864207,
        0.0010475177168898168,
        -0.00027686748579286387
      ]
    ],
    "lag_4": [
      [
        -3.7706008478504114e-05,
        0.0012244939514808983,
        0.0008678659904468249,
        0.0006320633689408595
      ],
      [
        -9.772930473691119e-05,
        -0.002603957387442685,
        1.9776188182937032e-05,
        0.0014145068938771486
      ],
      [
        0.00010204240037771394,
        0.0003139609990931016,
        -0.0034232209878959845,
        0.0017720729131516049
      ],
      [
        0.0001141853360394131,
        0.0001538016646638879,
        0.0005459941078332226,
        -2.4708914329423983e-05
      ]
    ]
  },
  "intercept_posterior_mean": [
    0.34060200815986047,
    0.4622025653857038,
    0.2256661491861972,
    0.32840551030572024
  ],
  "sigma_posterior_mean": [
    [
      0.40531453043087584,
      0.050011489232815946,
      -0.007100280677926511,
      -0.06304563854975344
    ],
    [
      0.050011489232815946,
      0.23045116121137718,
      0.01847584145299233,
      0.02994315455791903
    ],
    [
      -0.007100280677926511,
      0.01847584145299233,
      0.15045993215557513,
      -0.019087650768701975
    ],
    [
      -0.06304563854975344,
      0.02994315455791903,
      -0.019087650768701975,
      0.08728110628665689
    ]
  ],
  "coefs_posterior_std": {
    "lag_1": [
      [
        0.046863659255556064,
        0.03950961307614611,
        0.040330497473932955,
        0.048235994974103184
      ],
      [
        0.017601439558008223,
        0.03891251152077805,
        0.024693053973040783,
        0.029592517601002295
      ],
      [
        0.012663381763987033,
        0.016684735936685305,
        0.028721484880351117,
        0.022365355154491545
      ],
      [
        0.007217211188848386,
        0.009803561138737035,
        0.01089571306688895,
        0.02224622900015763
      ]
    ],
    "lag_2": [
      [
        0.0307996522631966,
        0.021659637765368226,
        0.024694380899904243,
        0.03266369157716612
      ],
      [
        0.009258153088437674,
        0.023742102948457154,
        0.01437156745990429,
        0.01893462215922481
      ],
      [
        0.0066027240286953654,
        0.008880172397573301,
        0.01959639757226155,
        0.01334798688651237
      ],
      [
        0.003739835308067544,
        0.005001547393419823,
        0.005884503904895902,
        0.01465099547822778
      ]
    ],
    "lag_3": [
      [
        0.02159998416611949,
        0.014685504849962406,
        0.017020058603469886,
        0.02270814571386297
      ],
      [
        0.0062701149082539315,
        0.015995599571585372,
        0.00972279650695867,
        0.012842868243516464
      ],
      [
        0.004411579339499199,
        0.005918908536482201,
        0.0134984022268385,
        0.009110536917123765
      ],
      [
        0.0025098978268892984,
        0.0033988541006477815,
        0.003929918460167836,
        0.010216496025602517
      ]
    ],
    "lag_4": [
      [
        0.01634341919253783,
        0.011030061805167276,
        0.012992390911539357,
        0.017347007013533845
      ],
      [
        0.004655960220028874,
        0.01219648990929999,
        0.007260539855010065,
        0.009694848244461199
      ],
      [
        0.003281076437121931,
        0.004450952585113702,
        0.010271421955183435,
        0.007007511340749195
      ],
      [
        0.001886942339881862,
        0.0024868454628342736,
        0.0029357234891495927,
        0.007678007325492771
      ]
    ]
  },
  "model_comparison": {
    "Minnesota (lam1=0.1)": -557.744937520785,
    "Minnesota (lam1=0.2)": -537.5807298381031,
    "Minnesota (tight, lam1=0.01)": -584.6690295306939,
    "Normal-Wishart": -702.4089055667168,
    "Flat (diffuse)": -426.3849276028184
  },
  "shrinkage_analysis": {
    "lag_1": {
      "ols_cross_var_mean": 0.08946040544273387,
      "bvar_cross_var_mean": 0.01456611319005754
    },
    "lag_2": {
      "ols_cross_var_mean": 0.10690215756232324,
      "bvar_cross_var_mean": 0.002456938051815435
    },
    "lag_3": {
      "ols_cross_var_mean": 0.08127480920480147,
      "bvar_cross_var_mean": 0.001499105062067022
    },
    "lag_4": {
      "ols_cross_var_mean": 0.04071437392631151,
      "bvar_cross_var_mean": 0.0006048744265687103
    }
  }
}